digraph Tree {
node [shape=box] ;
0 [label="X[6] <= -0.425\nmse = 0.597\nsamples = 142\nvalue = 1.965"] ;
1 [label="X[9] <= -0.486\nmse = 0.185\nsamples = 53\nvalue = 2.755"] ;
0 -> 1 [labeldistance=2.5, labelangle=45, headlabel="True"] ;
2 [label="mse = 0.0\nsamples = 12\nvalue = 2.0"] ;
1 -> 2 ;
3 [label="X[2] <= -1.064\nmse = 0.024\nsamples = 41\nvalue = 2.976"] ;
1 -> 3 ;
4 [label="mse = 0.0\nsamples = 1\nvalue = 2.0"] ;
3 -> 4 ;
5 [label="mse = 0.0\nsamples = 40\nvalue = 3.0"] ;
3 -> 5 ;
6 [label="X[12] <= 0.004\nmse = 0.25\nsamples = 89\nvalue = 1.494"] ;
0 -> 6 [labeldistance=2.5, labelangle=-45, headlabel="False"] ;
7 [label="X[0] <= 0.256\nmse = 0.023\nsamples = 43\nvalue = 1.977"] ;
6 -> 7 ;
8 [label="mse = 0.0\nsamples = 40\nvalue = 2.0"] ;
7 -> 8 ;
9 [label="X[12] <= -0.228\nmse = 0.222\nsamples = 3\nvalue = 1.667"] ;
7 -> 9 ;
10 [label="mse = 0.0\nsamples = 2\nvalue = 2.0"] ;
9 -> 10 ;
11 [label="mse = 0.0\nsamples = 1\nvalue = 1.0"] ;
9 -> 11 ;
12 [label="X[9] <= -0.69\nmse = 0.042\nsamples = 46\nvalue = 1.043"] ;
6 -> 12 ;
13 [label="mse = 0.0\nsamples = 2\nvalue = 2.0"] ;
12 -> 13 ;
14 [label="mse = 0.0\nsamples = 44\nvalue = 1.0"] ;
12 -> 14 ;
}